48 16
09a53393 -0.4096019 -2.1956408 0.09543139 -1.3176616 1.7689656 0.3220856 0.6855757 0.9842567 0.6108203 0.17930777 0.847226 -0.16107611 0.0008687364 -0.16771466 -0.6120152 -1.8203835
5d5de21c 1.7088338 -2.5787609 0.49189273 -0.34587827 1.4820558 0.04558832 -0.42131191 -0.6787266 0.7782885 0.2545683 1.5361091 0.3936855 -0.010253048 0.8993028 -0.07814991 -1.2185546
d38aa58d 0.09148311 -1.0389724 0.18473645 1.148386 1.5640948 1.2732286 -0.39889953 -0.80008394 0.7606248 -0.00045695677 1.634206 0.4098431 0.24539469 -1.041172 -1.7487983 -1.9694781
e3df2680 -0.3084917 -1.324271 -0.1949947 -1.6157639 2.150515 0.9546166 0.3528079 -0.62568426 0.37318462 1.6824963 -0.510852 1.7732046 -0.40671405 0.29427922 -0.30756345 -0.99217504
dba996ef -0.15480456 -0.11926377 0.11177328 -1.2287607 1.9511997 1.4727527 -1.4313073 -1.3101807 1.9359018 2.3939323 1.9120705 0.2481324 0.6985565 0.0064555677 -0.45193043 -1.7351335
d63ef163 -0.4482705 -2.170526 -0.12469277 -0.21246527 0.7682048 1.469524 -1.2743553 -0.76358294 0.35956708 0.81049865 -0.33327162 0.5120989 0.68198377 -0.38036144 -0.6683748 -2.039375
3d91fa85 4.2805533 -1.0721552 -0.5827511 -1.1853496 2.8677502 2.1496215 1.8104265 -1.3264904 -0.6187109 -1.7968842 0.5645955 2.4576786 0.92873436 -1.6019164 0.28476986 -1.8950168
626085d5 0.07093446 -1.2034541 -0.5601708 0.84041655 1.2324195 4.0473986 -1.9944001 3.4125218 0.06961429 1.3494582 1.4131111 -0.27418202 0.1993151 3.8549905 0.65468776 -1.6837534
81cee340 0.4663805 -2.7490783 1.3007584 0.31947288 4.192275 2.511941 -0.84790325 -0.7926472 0.44678032 1.9697957 1.7959692 1.4498986 -2.1743948 -0.06518727 -0.49493584 -1.1826028
32777b38 0.121789776 -1.6924093 0.03195113 -0.49050346 1.4704236 1.3825256 -1.376942 -1.0880057 1.1782004 1.2268716 0.633585 0.99915093 -0.8352189 0.010826355 -0.56337434 -1.3479929
d6b7b743 -4.440846 0.23034269 -0.74665654 1.9873313 -0.9257669 5.1829143 -1.3166558 -5.659843 1.4510812 5.176966 -0.60170376 -5.6034365 -2.0119915 3.0414963 -2.5095577 3.43003
73c2ec69 -0.28647223 3.0626512 -1.1658198 4.271595 -0.28003362 -1.64034 -8.717533 4.0659027 -0.3718363 9.542457 -1.1908269 0.6382481 -1.6176054 -4.0716453 1.2248194 0.87759835
728076ac 2.6400177 -3.677827 1.624998 -0.3108044 0.15357856 0.58043367 0.094516985 5.1382504 -5.1506777 -3.9220936 -4.8976507 -5.5748787 -2.2294974 0.1379719 -4.9165955 -1.7800056
40651754 -4.059927 -1.7077047 -2.476789 4.553502 -0.084796526 -0.717166 2.6136627 1.4055662 3.3108191 -1.322639 1.1337785 5.613895 -0.34355298 0.23665087 -0.18039261 2.413109
2e68ccc3 -0.42535797 -0.7589233 -0.5093371 0.3724675 -0.9038012 0.48776442 -2.276595 -1.1779437 1.0773972 2.443925 0.5331317 -1.1357088 -0.54314154 0.3035959 0.054737538 0.18963493
bcc910df 1.729011 0.12920947 2.2370257 -1.688056 -0.8103616 -0.86847323 2.1312597 2.468541 -2.7213762 -1.6213458 -2.0150728 3.2738123 -0.48795176 -2.2343614 -1.8911667 -0.1308975
0567184d 1.0798292 -0.500254 1.8635203 1.3649448 -1.7815616 1.5105767 0.93757486 0.94777864 2.863463 1.6477829 -1.707554 -0.28614408 0.007429961 2.858135 -1.3590676 2.0242238
8f2bc724 -1.0617812 -0.8951054 -0.3085058 -1.6574004 -1.2484226 0.92248005 -1.3823448 -0.8097494 1.0733914 1.2386737 -0.3379805 -0.518315 -1.1455328 1.2837195 0.5673366 0.29529217
c294d20f -0.04505443 -0.012422504 -0.03609153 0.57131004 -0.1776275 0.073833115 -0.31966183 0.04214963 0.22123036 1.1896212 0.120882176 -0.34917945 -0.40062353 0.28629157 -0.43085477 0.59564483
75627efd -0.75953686 -0.69860417 0.09951316 3.0653481 -1.9081842 0.09794131 -1.9378406 2.774966 -0.73775506 0.78834593 -3.491166 0.28364962 -3.1610348 -0.684753 -0.6046337 1.6330773
54e5f6b4 -0.7501167 -0.6576328 0.11241734 2.5071821 -1.3568364 0.037588194 -1.3522673 2.47815 -0.80708456 0.82608277 -2.9700277 0.2850609 -2.8603723 -0.35227942 -0.6034869 1.416118
69bca6e5 -1.9562237 -0.035064608 1.3829339 1.5038023 -1.7645404 2.282779 0.63542193 0.996214 -0.39235744 0.6842609 -2.6213799 0.14715135 -3.0197651 0.28606102 -1.3855208 2.5324752
d013b7a3 -1.9579331 -0.030298445 1.3928602 1.7438753 -1.7261132 2.417155 0.64577377 1.1155367 -0.30077618 0.74388665 -2.642535 0.09873836 -2.9521494 0.59974766 -1.5261236 2.4123058
ace40671 -1.5658064 0.07788712 1.1751814 1.3884937 -1.452172 1.888082 0.6095252 0.9400084 -0.44741958 0.60494834 -2.47517 0.22657813 -2.5230937 0.059757117 -1.2089741 2.15929
b15ffff8 -1.3450912 -0.10189547 1.1544989 1.6394447 -1.3990244 1.6651008 0.21167274 0.8572283 -0.5391772 0.7709911 -2.2852888 0.23299515 -2.7260494 0.44428352 -0.8861406 2.0481036
f266840a -1.6630477 0.14788482 1.1983507 1.3146384 -1.5032369 1.9924145 0.771442 0.6828435 -0.2780927 0.5765417 -2.5322347 0.30046213 -2.7328937 0.23794322 -1.0424074 2.2729526
f79898ae -0.68688816 0.9203538 0.6123839 0.5973047 0.021959266 0.24417613 0.13221867 0.19138488 -0.23161477 1.0641521 -0.561429 0.31181386 -0.7151466 -0.0822711 -0.3481257 0.80986303
461a1574 -1.2386734 0.020102002 1.0020741 0.9753095 -1.1988099 1.4592979 0.5952272 0.6622707 -0.38008323 0.07017523 -1.5126306 0.2710757 -1.7935327 0.29421327 -0.85681623 1.6167922
2f85639c -1.072945 -0.1204791 0.92990744 0.9154761 -1.1893716 1.3503796 0.3582154 0.5055697 -0.3111399 0.31552637 -1.2102108 0.34740576 -1.6653605 0.1999839 -0.7411452 1.2276455
f0d1ff15 -0.6319136 0.09417154 0.6080827 0.50399995 -0.36137155 0.7154569 0.5055075 0.5038877 -0.14202634 -0.0037737184 -0.8600206 0.18716815 -0.76930076 -0.013940123 -0.49780878 0.8948053
506b3c4b -0.5163887 0.1264244 0.37311646 0.22255774 -0.28032902 0.52056706 0.5772503 0.32094815 -0.1880732 -0.033504672 -0.74214387 0.25358528 -0.6457912 0.09510649 -0.5369607 0.6674966
71cf10b1 -0.66794735 -0.06659721 0.7934925 0.63825643 -1.0294696 0.660423 0.26845452 0.46221784 -0.49563122 0.09737766 -0.7403215 0.48361224 -0.97900146 -0.13933209 -0.7099358 0.93191373
124068c6 -0.68982995 0.33850485 0.4799197 0.39137235 -0.23756869 0.69578105 0.46311224 0.3488721 -0.096597955 0.04188934 -0.628782 0.22549221 -0.7303963 0.13470736 -0.257782 0.9342597
234302e6 -0.646067 0.25337452 0.654393 0.25090104 -0.5949618 0.56957656 0.39546797 0.2788459 -0.20814827 0.26488477 -0.75854737 0.21024708 -0.94527674 -0.05959523 -0.59558654 0.67039543
e024fa48 -0.34644124 -0.08134243 0.4906156 0.46872076 -0.59632087 0.449827 0.10281441 0.21054626 -0.2774762 -0.03006173 -0.49034 0.23066351 -0.5911381 -0.018903444 -0.33936596 0.43843397
78915d3a -0.4399492 0.14724171 0.50913906 0.2433872 -0.4949794 0.2959521 0.08918635 0.08773152 -0.2022932 0.41827896 -0.4394586 0.21945415 -0.7803496 -0.14641921 -0.25468728 0.34557775
fcd37a6d -0.5950887 0.23042022 0.4518701 0.26895675 -0.11429987 0.4875167 0.23339741 0.18187523 0.07617386 0.1557529 -0.330254 0.23093225 -0.55698574 0.19143564 -0.32951257 0.5593446
4610d0f1 0.067709215 0.09091564 0.14946152 0.29093987 -0.4001912 -0.03897403 -0.3693366 -0.16512191 -0.45269984 0.46486253 0.09885056 0.02589803 -0.34167066 -0.06720611 -0.15090385 0.14620666
68429f34 -0.002082095 0.09508569 0.25420234 0.28909156 -0.50241995 -0.009380841 -0.23413092 -0.119313866 -0.40394077 0.44398227 0.08879593 0.06785172 -0.38439462 -0.0024471683 -0.10470195 0.19262226
c61b491b -0.2514076 -0.23064868 0.507919 0.41512713 -0.9279388 0.3337413 -0.03399479 0.13726234 -0.4520296 0.19328378 -0.10683799 0.24487844 -0.67882913 -0.08758309 -0.39286858 0.3293883
2ecc047e -0.10253616 0.020639118 0.33668652 0.339324 -0.45400837 0.17822452 0.00018109643 0.1639697 -0.47730243 0.17456324 -0.21044019 0.23015393 -0.46629494 -0.11217983 -0.29332533 0.195875
5c88d71b -0.18264505 -0.049752936 0.34481505 0.08045058 -0.39661115 0.19396554 0.09058642 0.15937522 -0.13946328 0.1390889 -0.07942571 0.14833249 -0.33696643 -0.041677058 -0.23166396 0.18385655
06d16156 -0.31832266 0.03257228 0.57915866 0.09425237 -0.54725784 0.2804678 0.16868956 0.2283278 -0.2301583 0.26805192 0.14369343 0.28337035 -0.35778716 -0.15175866 -0.42226753 0.14677674
ff00cd08 -0.28717363 0.038085204 0.112283744 0.12567869 -0.084761314 0.21010602 0.185642 0.10751887 -0.024723476 0.023729414 -0.34804577 -0.021649498 -0.2702477 0.032658234 -0.09852071 0.35449135
13eb7010 -0.027026197 -0.04173562 -0.029123714 0.12871696 -0.057352167 -0.0020687513 -0.02436595 0.031293888 -0.010271707 0.11141134 0.029751902 -0.10939169 -0.11004745 0.017078616 -0.023844875 0.074513905
559305d8 -0.22591563 0.08427498 0.12729995 0.1465112 -0.11027679 0.20791624 0.13063104 0.16112451 -0.016789258 0.0129573895 -0.08966821 0.03505945 -0.2050675 0.053491525 -0.0662976 0.31673777
0f86472a -0.10282375 0.061979182 0.043089744 0.07000119 -0.0138575 0.10366896 0.06695833 0.06327834 0.024160301 0.011326247 -0.09013043 0.014232203 -0.13242765 0.028637016 -0.035991933 0.15132204
b65fc512 -0.038522646 -0.009832404 0.008458739 -0.016143378 -0.05064974 0.018770762 -0.0034848314 0.02829245 -0.025438484 0.03441801 -0.008597555 -0.022574639 0.023046669 -0.025724106 -0.017636437 -0.01769762
